{
  "Layers": [
    {
      "Type": "*layer.Layer",
      "weights": {
        "data": [
          -0.07139616578164366,
          0.10413790398415698,
          -0.1004798576439053,
          0.06444130081493545,
          -0.07169338848582807,
          -0.18684613785942278,
          -0.10289261254025593,
          -0.04623552650543682,
          0.15645243241496254,
          0.1953959380901114,
          -0.14539200461171412,
          -0.06970856131170021,
          -0.10771597909877587,
          0.09753125182707194,
          -0.08532379115461378,
          -0.06662729490532007,
          -0.1490544718834234,
          -0.10269867547419552,
          -0.09157928521888457,
          0.18968053526406253,
          0.14646504482012787,
          -0.0016932023052550435,
          -0.1035893091517165,
          -0.05345858082633315,
          -0.2681236091751813,
          0.19170528062348544,
          -0.08797640398109761,
          0.06399382202458612,
          0.05947361334096032,
          -0.016952827651586413,
          0.02077072861328047,
          0.016809463607374314,
          0.047819526651268075,
          0.1379082719106948,
          -0.06715854539145642,
          0.08127021453805812,
          -0.06604678089039094,
          -0.133525605318786,
          -0.05609027033616469,
          -0.04017076397927226,
          0.11334829186294894,
          -0.118142032564448,
          0.15868717434630505,
          0.06571616278916141,
          -0.059231130742658775,
          -0.03958474650843177,
          0.10666052444841184,
          -0.04052401183517374,
          -0.14589514567104409,
          -0.11475719507464735,
          0.03980252703235214,
          -0.08497766796363664,
          0.009236168097613547,
          -0.041913647546707,
          -0.0915723461762798,
          -0.05214033297495083,
          -0.09120896633231615,
          -0.051075060034222235,
          0.16556706762370607,
          -0.03420822169779793,
          0.06619007470584298,
          0.0058270288506023895,
          0.00799282812079541,
          -0.050537554328527204,
          -0.18275304823383828,
          -0.0059209631335620195,
          0.001641387748000441,
          0.03849358924503776,
          -0.12180618712248231,
          -0.180396875987701,
          -0.0335140224295173,
          -0.027795494464644428,
          0.03749491590660277,
          -0.036558053224596126,
          -0.11572304744288005,
          0.14153494100844946,
          -0.011300696929989848,
          -0.03286659220860635,
          -0.15808938836680983,
          0.21547619481634267,
          -0.041312250775643204,
          -0.01138946416865438,
          -0.030552793561449233,
          -0.10165203469706265,
          0.17324493848770786,
          -0.033475666544899495,
          -0.12176735172441606,
          -0.17891743730866072,
          0.17947108390771996,
          -0.056612378651505375,
          -0.05378912880298822,
          -0.04868612409849018,
          -0.03349625266164929,
          -0.08486935483342281,
          -0.12946465133869317,
          0.04032376700177535,
          0.012654315944195605,
          -0.05773791319198364,
          -0.040686458525433594,
          0.022130944187004054,
          -0.018865896072909952,
          -0.05145576105350684,
          0.004523565880578455,
          0.03133616742565293,
          -0.0035833226948900716,
          0.139207607040273,
          0.21526026001624998,
          -0.044907703635803285,
          -0.05379312917656433,
          -0.11474161195976036,
          -0.12832845438800605,
          -0.11050522591299945,
          0.130912968104372,
          0.026377064209780407,
          -0.0437748003328046,
          0.10241786067909858,
          0.035865780217846414,
          0.038033776691440334,
          -0.06010531188385818,
          -0.12568116160811485,
          0.007045396346863168,
          0.03224146132002583,
          0.1144317183219398,
          0.12255758425231586,
          0.043409728453227665,
          -0.11981521501435292,
          0.10105700758537467,
          -0.03873354169873169,
          0.0752398355792668,
          0.07084617285066826,
          0.1702646853743017,
          -0.17704164569833641,
          0.019533486360130314,
          0.19524254257370138,
          0.11594834532938321,
          -0.04060102439542645,
          0.04728699648557478,
          0.12195722633794269,
          0.024016876959168022,
          -0.13268724073543045,
          0.14150334181136243,
          0.10325130203466608,
          0.1419080051846399,
          0.00638497867644059,
          -0.02036077371121831,
          0.08286798829183309,
          -0.025009257759329558,
          -0.03616650284712131,
          0.007212473139731227,
          -0.018345722679156944,
          -0.09159389759467902,
          0.06964114249712428,
          -0.04904822235561288,
          -0.12604457838423677,
          -0.08147470262923166,
          -0.1971304818087916,
          0.12228545466539435,
          -0.11366872548034108,
          -0.17848665045182938,
          0.11019586120210359,
          0.08244300259725507,
          -0.10909055819924432,
          -0.07037032849261424,
          -0.014512879654937997,
          -0.08719863295288012,
          -0.20304557902813272,
          0.0454926033494062,
          -0.17213302958252574,
          0.0007488001636540433,
          -0.025281746403943425,
          -0.11839968376438666,
          -0.10300526410500892,
          -0.009376017622335033,
          -0.08523998905065466,
          -0.09115580415597421,
          0.0029580047264171697,
          0.025553775575778613,
          0.04850806583753738,
          0.20171268378943089,
          -0.15598397689819762,
          -0.14777010421853765,
          -0.072203232262813,
          0.13427094257729338,
          0.19131098269653807,
          0.1583551354577605,
          -0.08994437914456571,
          0.19285730757984337,
          -0.09131845613149968,
          0.00805104762292258,
          -0.001340896516535773,
          -0.1645219691356203,
          0.057159488262733246,
          -0.0040153271474628665,
          0.18736053197772867,
          -0.017322120598419102,
          0.05775486380726944,
          -0.1729242266783927,
          -0.027681109863141626,
          -0.003954810835383449,
          -0.05320607953305774,
          0.16482634006556168,
          0.04434081786109393,
          0.07186070631424957,
          0.020855162877617458,
          -0.10380797953100285,
          0.08831960344457333,
          -0.15773148844107418,
          0.010352775284190286,
          0.06508274055604274,
          -0.09361834079883986,
          0.012368063535664723,
          -0.01744316213947722,
          0.01840487829593943,
          -0.04900177737540815,
          -0.0940197670665474,
          0.06133269344907688,
          0.01327142649104584,
          0.15522648818582177,
          0.1410015134388347,
          0.14994028414278193,
          0.2154106877109788,
          -0.14653775376357656,
          -0.0018129397761943418,
          0.04575295721688932,
          -0.3007620440436058,
          -0.04791721310934768,
          -0.08732779580620383,
          0.10564345800285474,
          0.11707071951426416,
          -0.07168807901480467,
          -0.03497212194148443,
          -0.10505247740826795,
          -0.014870914907558238,
          -0.014345576455360193,
          0.04921602875278636,
          -0.0222089271952626,
          -0.006712882477075981,
          0.004827139651513334,
          -0.0021778447709556925,
          -0.011820875538553453,
          0.010527357619510402,
          -0.0528100385574862,
          -0.027326006956239702,
          -0.13875226262414,
          -0.014661756606112892,
          -0.03321393709821849,
          0.01968379628093819,
          -0.06241159244005063,
          0.03138481975256662,
          -0.047888656685923535,
          -0.06796958770531089,
          0.06934460870259404,
          0.09837697033861639,
          0.045053901982784535,
          0.09507306962089754,
          0.13734227225655554,
          0.023745527417262772,
          0.057091908587626396,
          -0.17862726341830532,
          -0.008584907303575464,
          -0.0048709215872621454,
          -0.1846000519671115,
          -0.09281805934407245,
          -0.0972273076922455,
          0.165374665118206,
          0.053170673755448344,
          -0.04845258298587374,
          -0.10992328675765013,
          0.14036150322448968,
          0.05606902167852501,
          -0.15009836647163946,
          0.00972177225264672,
          0.036634537187192166,
          0.3313890614775964,
          0.12074859609870875,
          -0.06164207034838804,
          -0.0729914236985986,
          0.05233059759852225,
          0.10287901626362045,
          -0.059604423448509115,
          -0.020517256951072534,
          0.07474649002667431,
          -0.03981053373090685,
          -0.0792348824638426,
          -0.05709180714471149,
          0.18262932545966834,
          -0.0443112486165842,
          -0.00968521460324192,
          0.06634645751716652,
          0.01988146753005945,
          -0.12489984932118402,
          0.25200454052943616,
          0.034516372453605365,
          0.031225364441675445,
          -0.0027107162666822776,
          0.023169953513979817,
          -0.005865639511357076,
          0.1383379340417461,
          -0.018270587044652706,
          0.1552518022278974,
          0.14157082943830293,
          -0.026783247825898335,
          0.08922004846208044,
          0.10504349793658337,
          -0.025210901289282186,
          -0.0010716205512381627,
          0.011693368047991239,
          0.0343640629222552,
          -0.027084434550740458,
          0.01724513984804823,
          0.03622929736434291,
          0.0950238791769359,
          0.034075122995555214,
          0.01638189798074377,
          -0.1881996986548537,
          -0.12259937879248615,
          0.06748962588454914,
          0.03258565960260146,
          -0.02777930792293313,
          -0.07160107930671977,
          0.047935639057696426,
          0.09037673058423591,
          0.00905448880506075,
          0.03397130665513125,
          0.08782526575658207,
          -0.06520002989999364,
          -0.037461552026478204,
          -0.10936288971775487,
          0.0038487179981582585,
          0.06189848737994953,
          -0.0728575004100091,
          0.002153701620679598,
          -0.014949773098056066,
          -0.08307710469034148,
          0.04916800597121751,
          -0.07256885863616278,
          0.02336883409400303,
          -0.13523888720594798,
          -0.12159359129425867,
          0.05861203052731398,
          0.015966699756386076,
          0.10821982770106729,
          -0.0042970932093172876,
          0.003216196620808605,
          0.038489124012681196,
          0.14849592931063194,
          0.02553748727043631,
          -0.07150310054555219,
          -0.15439940239756797,
          0.02381459933634313,
          0.04172877551105304,
          -0.04138644724677499,
          -0.1310660652789608,
          0.09704056209375779,
          -0.030817548985686612,
          0.14833286090486628,
          0.01838333700571409,
          -0.023147080197044426,
          0.1309391058290293,
          -0.02389127313711129,
          0.06269285403555443,
          0.004189257632145569,
          0.1064402778636893,
          -0.1637339661512115,
          0.03742173008961784,
          -0.1370884505532224,
          -0.07155125319978976,
          -0.09430023050657237,
          0.17430737933011062,
          0.17986556590947883,
          0.19351908369081622,
          -0.07521922646553054,
          -0.0855053862541246,
          0.16236060599627608,
          0.16639213967841668,
          -0.034266388473363475,
          0.1569897319638395,
          -0.11734894607604891,
          0.019389084057451548,
          -0.1524248807158218,
          -0.03146996426541791,
          0.023094410877028817,
          0.023793005536925593,
          0.10743278233911484,
          0.1920293545859073,
          -0.1035278815312607,
          0.032127463774732315,
          -0.08338301645188385,
          -0.18676073516554267,
          0.04963361454916513,
          0.15520007585417764,
          0.12909160527305322,
          0.05819686135645242,
          -0.12846220936979816,
          0.05405732886264702,
          -0.10076345726957443,
          -0.18631619079755524,
          0.17407321972886333,
          0.02737251333738801,
          -0.13850081838665465,
          0.0019696142783020404,
          -0.11730780464368769,
          0.008803888586778308,
          0.004853545466291508,
          0.15632138628124528,
          -0.1190415161066832,
          -0.0914648372705765,
          -0.039471279413771966,
          -0.0903197400996943,
          -0.04895006538307021,
          0.037546072438559834,
          0.05499031313757386,
          0.05090736911684802,
          -0.04419409292972972,
          -0.01129810305770981,
          -0.020846636792754322,
          -0.23353453653138323,
          0.01097935329725287,
          -0.09301159395982048,
          -0.24193042804262882,
          -0.14885037452289218,
          -0.05345031033068189,
          0.08685924219682518,
          -0.03398232478975429,
          -0.13596523002108019,
          0.10725646712853365,
          0.048843468263970735,
          -0.10915032738603082,
          0.08647030838780836,
          -0.24394855345142114,
          0.028843234654496896,
          -0.10862823993163791,
          -0.14521698940243877,
          -0.0017860727005777261,
          -0.021515036410767394,
          -0.1777005527864461,
          0.09040540645525229,
          0.003272522489867498,
          -0.19015121727002238,
          -0.030031048918304597,
          0.14711686928992262,
          -0.05491069527542125,
          0.07781486160737967,
          -0.00542752458468655,
          -0.0762813140628813,
          -0.003938790596047094,
          -0.269129735298646,
          0.1521079504749474,
          0.014019055164024703,
          0.15666261795324107,
          -0.0465255365124769,
          -0.0011941172128654414,
          -0.07547760430430371,
          -0.03343785757532941,
          0.049552310707451745,
          -0.053841928160301984,
          -0.016933100771562317,
          0.08786347102388023,
          0.030792055940077948,
          0.01458647553281417,
          0.04117723794122661,
          -0.008225830533472124,
          0.04479751230100503,
          0.10399532949107165,
          -0.06276021120444022,
          -0.07603230126321979,
          -0.01578201094206414,
          -0.046442766883389865,
          0.04218150216738771,
          -0.005688955077118992,
          0.06553410697130645,
          -0.024082719028708222,
          0.016142055248265882,
          -0.027433457674757154,
          0.0508314224875042,
          -0.06470677030897219,
          0.010672434259529504,
          -0.12042041670709218,
          0.1375578608739863,
          0.058006359215001635,
          -0.005410151616380134,
          0.02616825832814957,
          -0.1504085110121029,
          -0.049624833843620805,
          0.22067041858203584,
          -0.050462202178841675,
          0.009072714810996132,
          -0.15636331670075723,
          0.0789363514038916,
          0.027789554044308037,
          -0.08551809747153642,
          0.031063105830571525,
          -0.056351302189861126,
          -0.10596890366112864,
          0.011533429813191203,
          -0.09644797679707674,
          0.20037441367944897,
          0.07642334736125185,
          -0.037506418542136925,
          0.0748110581785122,
          0.07619930103742834,
          -0.0600100509397059,
          -0.09709610136921731,
          -0.016533199170069367,
          0.10570336836878405,
          0.1008889465491121,
          0.005291287838351814,
          -0.06818134490146044,
          0.12149739693676909,
          -0.0030283823009993414,
          -0.18581087377532754,
          -0.05629808400656353,
          0.07812745285240408,
          0.17747840976731194,
          -0.014991021994048887,
          -0.10492343378278104,
          -0.02797814091129375,
          0.25126020377991515,
          -0.08075061701215411,
          -0.06272648182571793,
          0.07034164940424384,
          0.10204127743328645,
          0.09384241765133385,
          -0.08743496749100992,
          0.04279119321853636,
          -0.03586553978176767,
          -0.10722502797955238,
          0.14046678890510697,
          -0.0686193177074431,
          -0.030700613261816983,
          -0.10208783732620245,
          -0.09662575483096637,
          0.23964826984717322,
          -0.05395821919972866,
          -0.17117694440222578,
          0.1336489117203018,
          0.043146925061229385,
          -0.15895033467317693,
          0.028029398073452023,
          -0.09903177203907412,
          0.026187053699053185,
          0.004650728374503773,
          0.09192623679757181,
          -0.04455406635142533,
          -0.042403845957911065,
          0.08084786209576782,
          -0.10156234705957869,
          -0.040245643118154546,
          0.05581053233777226,
          -0.07917991274109694,
          -0.031223206902998027,
          -0.014928165769340484,
          -0.02014005824543203,
          0.07434846444348675,
          0.05779224735587401,
          -0.07891936547374526,
          0.014584115712551112,
          -0.2794729736114114,
          -0.024548296388936453,
          -0.004203630316628588,
          0.17050358947037816,
          0.00028469243011766833,
          -0.18523705853391984,
          -0.10795360872383362,
          0.05596390596909286,
          0.012911826254734879,
          0.10376279598507229,
          0.0027256565466503993,
          0.07867421624287214,
          -0.03931857554898805,
          0.1908560567744033,
          -0.05713863954017937,
          -0.04876285251346999,
          -0.1226460463634996,
          -0.042586257862754925,
          0.05459720860131759,
          0.08394829744945456,
          -0.09555171644057359,
          0.03183096642926781,
          0.12276255133867656,
          -0.2067234370226667,
          -0.20256082219998406,
          -0.035774022534094,
          -0.14100703410378237,
          0.02530785753515769,
          -0.11951310941494407,
          -0.015443003518726984,
          -0.10833660915757054,
          0.04576668349101009,
          -0.06593236063087632,
          -0.0007472459822039644,
          -0.02795553028542403,
          0.10394629741701054,
          -0.05466835005239285,
          0.055723009464313834,
          0.09125547356328172,
          0.07219054468430101,
          -0.005341924292809595,
          0.001560739921500619,
          -0.1289244766854639,
          0.08157337856698631,
          0.039300894523869055,
          0.047317783547108694,
          0.03745968140277915,
          -0.0710597943700727,
          -0.040914648705193284,
          0.006421652550317401,
          0.10502424332246259,
          0.0688572419755979,
          0.12683092149517453,
          -0.004156043224732984,
          -0.14745600654096008,
          0.20019147112375005,
          0.055156887548674906,
          -0.0287173589773147,
          -0.04405675663065693,
          -0.08588450429419904,
          0.042683591517590595,
          0.06648357196062428,
          0.08947861742841,
          0.02391162854980886,
          0.0337718210908144,
          -0.05786450192435059,
          -0.0842193662240527,
          0.0004130509482766408,
          0.053201639258219496,
          0.14763160554223972,
          0.10231315836127797,
          -0.012638266398784431,
          -0.06217212981343976,
          -0.16865672747822266,
          0.06085730477114596,
          0.06162715604050605,
          -0.10914693583430884,
          0.02396804357873615,
          -0.07301973514742299,
          0.11109413857172341,
          -0.0184921072538544,
          0.13272094811537571,
          0.10056380607976581,
          0.07230390072386436,
          -0.05808000716354674,
          -0.14801924214874812,
          -0.04769065390617686,
          0.015636285131507506,
          0.03561964906128623,
          0.02959676393714599,
          0.07413687735878992,
          0.006272798302264972,
          0.018606369097442545,
          -0.0709255537577182,
          0.06398557987139813,
          -0.1852128451716138,
          0.17322748405334928,
          0.03141131247935405,
          -0.048204452735612004,
          0.0973163793500881,
          -0.05316228418865886,
          0.2215940696567493,
          -0.0062209522597758875,
          -0.24925582745375108,
          0.02221757225191947,
          -0.025455257409595762,
          0.049071304336775416,
          -0.09063342774025905,
          0.09652760988142528,
          0.18227694871802785,
          0.07095970361100971,
          -0.14378026801335597,
          -0.019511532422557643,
          -0.031414991835932174,
          -0.01576201155686931,
          -0.05168418123456676,
          -0.18355186878858795,
          0.05405737758239166,
          -0.13069051658074374,
          -0.03389716747721056,
          -0.22644378260652773,
          0.06568470841340096,
          0.15341640708364926,
          0.2779576732799695,
          -0.01499457007261202,
          0.11792067061736555,
          -0.039718318128057095,
          0.028173494545134174,
          0.0032397704587989397,
          0.024239831227574234,
          -0.011943948739507092,
          -0.025598825779605837,
          0.022820416501087615,
          -0.04310160486004194,
          -0.01622783833378459,
          0.0204686666081817,
          0.06546733153062574,
          -0.15790623223689793,
          -0.05171016354660916,
          -0.18910182948994042,
          -0.06962438833283127,
          -0.059090376071447855,
          -0.016535215290066997,
          -0.02485296415994123,
          0.15090810200895335,
          -0.18345259659735996,
          -0.0019266866268114846,
          0.07252804581210581,
          0.1241853508220787,
          -0.00981785652817401,
          0.13025820915567102,
          -0.24712137218303876,
          0.1585759081250834,
          0.17534764666240277,
          0.07721741872454084,
          0.06990345918727385,
          0.035044815408935066,
          -0.10589743265477242,
          -0.0831295680835796,
          -0.15097057403127018,
          0.20467516639940034,
          0.14524337912093505,
          -0.022174951540870826,
          -0.030102483413635656,
          0.13705406926800995,
          -0.08666758903690049,
          0.23189407061297238,
          -0.0983310287245561,
          0.12320790131442459,
          -0.009681257168469216,
          -0.009275005935737476,
          -0.039457873154228155,
          0.009084556029921503,
          -0.1479692511967672,
          0.025329245922828824,
          0.03275130943164664,
          0.03727221158559736,
          0.05159479061854991,
          -0.08139457240545751,
          0.10455449149259259,
          0.05056622418903224,
          -0.16994382076372008,
          0.11530516041514828,
          0.08206558057401005,
          0.06019746568672322,
          0.07901885692921008,
          -0.030142694688723264,
          0.19747332987513572,
          0.08224177107869314,
          -0.04519871793210466,
          0.09823112911605436,
          -0.1690105770049068,
          0.08740845428135817,
          0.06802183459939791,
          -0.009414001889794287,
          0.19401683348414228,
          -0.17597940366166936,
          -0.07397104594712312,
          -0.1741755151306097,
          0.1377577378098544,
          0.07395207659510437,
          -0.01302589401712052,
          -0.1760432463476424,
          0.12383622982304412,
          0.10229753409803126,
          0.10365022089079817,
          -0.07368561682089,
          0.05785301179572776,
          -0.09724891923385988,
          -0.08000234155023878,
          0.011726840409259899,
          -0.17353715469802736,
          0.03535056325850978,
          0.03871232761563095,
          -0.07311452116641598,
          -0.09983063425855251,
          -0.09728032999598972,
          0.06855020065535126,
          -0.017622050184693008,
          0.011555635610059248,
          -0.11447535056861252,
          0.002996251784572664,
          -0.18806304160614323,
          0.05588725339541602,
          0.012361423096291681,
          -0.043206226730608095,
          0.0539129165868284,
          -0.06656829545515622,
          -0.10047057579149977,
          0.06523528185405025,
          -0.03687202650311777,
          0.16819342616071253,
          0.04318394546596052,
          -0.048875661270575486,
          0.07645496496174176,
          -0.004734099474973486,
          -0.01563814249628174,
          0.04197365737711636,
          0.01587762704380864,
          -0.0077916024957184835,
          -0.14718317844179454,
          0.05395199733207547,
          -0.03929013390988896,
          -0.04740633771368153,
          -0.016857229125136798,
          -0.027454350156950254,
          0.0072900956496828335,
          0.0407097699113727,
          -0.02655770585207607,
          0.08984409536742576,
          0.005002819542980687,
          0.00002490262134663362,
          -0.046560064990682444,
          0.03288596067184353,
          0.1334168387712613,
          -0.05780725287354616,
          -0.0403569679101508,
          0.06503137000343728,
          0.075545722236686,
          -0.031918371986878795,
          -0.05202374798259318,
          -0.11874938521219079,
          0.22922416373424626,
          -0.036934448612856996,
          -0.065973047841089,
          0.13168536433424216,
          0.05014690266609248,
          -0.04570028513044758,
          0.050365586368958534,
          -0.02880768783807412,
          0.041786218622297026,
          -0.16855578214777456,
          -0.021886805719716743,
          -0.0553370536493182,
          -0.11635076127011085,
          0.20214628057293704,
          -0.050274866690166835,
          0.20189185435091775,
          -0.020369745312258155,
          0.15346797881656152,
          0.06833032449493219,
          -0.20375752099001443,
          -0.1638417942824741,
          -0.16071704778124343,
          0.05858280225261139,
          -0.08233166051703038,
          0.040827293293283905,
          0.13488608789953957,
          -0.05870010770181488,
          0.0969649481616404,
          0.11933429654333955,
          -0.016392217183842504,
          -0.06494883813780494,
          -0.0625482108366585,
          0.1196149470570837,
          -0.04286379761043813,
          -0.07387996126024919,
          -0.14802289179101222,
          -0.10632384840515512,
          0.10873949369583705,
          0.0014419493498173317,
          0.11150192369833238,
          -0.08945091254820685,
          0.0014149178172353936,
          0.0037282886970905083,
          0.03398039540276111,
          0.11503114135236482,
          0.09184804897496245,
          -0.13491159608575076,
          0.07835709194583292,
          -0.034717755891655946,
          0.12593771845870477,
          -0.01092701112428508,
          -0.08075518772010237,
          0.04839929576080165,
          -0.06656920022997162,
          -0.1323836545480779,
          -0.05471000918119007,
          0.05839745075772844,
          -0.07555852675826748,
          -0.013229568172201094,
          0.1107548017407929,
          0.07253387899696008,
          -0.12233926192428084,
          -0.006979963237664811,
          0.11075118790183683,
          -0.1460020720936645,
          0.12194922622149611,
          0.0006709730348835941,
          0.02128575710501589,
          0.011547186071936456,
          0.024148365426674527,
          -0.03621558189748735,
          -0.048178890984776075,
          0.04936649569125921,
          0.0004634502385620568,
          0.015976240105681716,
          0.09138989161649687,
          -0.07804345264375451,
          0.09152347647103945,
          0.02259206724061891,
          -0.04988047292789952,
          -0.03167217838835627,
          -0.02459237726837853,
          -0.02927516255927302,
          0.1307614364461089,
          -0.11360882694047153,
          -0.2543864884751983,
          -0.08873696266941322,
          -0.082067746754957,
          0.08973089492461808,
          0.042219645738460036,
          -0.0028762336407343364,
          0.05568401982618453,
          0.084921762467789,
          -0.12134762890112305,
          -0.12347326971849484,
          0.00010095601115984888,
          0.14215616114752794,
          0.14270038941823754,
          -0.09311871974668771,
          0.14315913778550715,
          0.049533566955653856,
          -0.028320491189074738,
          -0.0024007504769016368,
          -0.11393856260125451,
          0.05567827798689157,
          0.20619960501509615,
          0.16639643533641707,
          0.10304493159032416,
          0.05529452445339319,
          -0.138942659465017,
          0.04848395461543395,
          -0.12164201041721194,
          -0.025244583778220864,
          -0.022450537936418626,
          -0.024473352378026034,
          -0.004815786552119324,
          0.04645355752528938,
          0.23959804799532325,
          -0.12295957059077481,
          0.05090370583733891,
          0.046850388636967014,
          -0.08001898678900278,
          0.17618926312412495,
          0.09571841763568943,
          0.07528535627615163,
          0.023319194864574604,
          -0.003263540211277787,
          0.02916350444694673,
          -0.06837692506274365,
          0.005907217358949788,
          -0.1575735798341287,
          0.05442202770836485,
          -0.03594279833775719,
          0.004378446249258832,
          -0.0003953729522945335,
          0.08243461469797962,
          -0.0981968531117212,
          -0.023105111581261703,
          0.047269091385243676,
          -0.04577462865080179,
          0.2621972218011132,
          -0.14671557815156464,
          -0.04458266301326046,
          -0.07456695916594533,
          -0.2268719741411026,
          -0.002940018120178579,
          -0.007424922469462018,
          -0.08353064440651353,
          -0.08820328685209766,
          0.1588442395168384,
          -0.042478522893983225,
          -0.06809973240919553,
          -0.07402945365601434,
          0.020643452779286975,
          0.0846590463757589,
          -0.1469491613653909,
          -0.15232798997915714,
          0.07290248923508047,
          0.15346071297923106,
          0.19750419939352137,
          -0.07984261711762149,
          0.12705132383375797,
          -0.11500395574465329,
          -0.12459998596269933,
          -0.23173523447722186,
          0.042058687546418096,
          -0.020762117709391043,
          0.002559449518817498,
          -0.03856151995621048,
          -0.14564435289084549,
          -0.1165545711312046,
          0.06228012607510364,
          0.18307500631570195,
          -0.02095804197891913,
          -0.004100915944382499,
          0.03158711484888115,
          -0.04892504246184727,
          0.06509283276200264,
          0.13089968965489696,
          0.11658402468936091,
          -0.07372502935927316,
          0.2714905927650277,
          -0.09743308103316105,
          0.13085733164073288,
          0.11539599985645457,
          -0.056113615025383715,
          0.05729611101610898,
          -0.06379837474576994,
          0.014577076013513296,
          -0.14774236080249345,
          -0.03693497840870081,
          0.017133705224144157,
          0.0016118305030063216,
          0.0642863001881791,
          0.041539567951411345,
          0.009784459227480504,
          0.10261206945878325,
          0.055974675785513725,
          0.03445503394373414,
          -0.0453427705522378,
          -0.06367652497018017,
          -0.15564423876656766,
          -0.019559545682858715,
          -0.22626651653225396,
          -0.021394408988655605,
          0.06025502845171096,
          0.05181021268895006,
          0.004877153350230459,
          0.14215165556333736,
          0.2030123314385542,
          -0.06140598643715307,
          0.17394303421542376,
          -0.07569483671907734,
          -0.1148444686095959,
          -0.09648283923602623,
          0.0722516187359275,
          0.2644982612613417,
          -0.026480771057386842,
          0.1242824232296184,
          -0.08637214966229048,
          -0.05226348328048315,
          -0.018246607243517055,
          0.15797359704479835,
          0.15266914575030494,
          0.09004934812664532,
          -0.10015835436997975,
          -0.08302307187382495,
          -0.07363595848016291,
          -0.1383297555907651,
          0.08936431472995567,
          -0.15092860572653283,
          0.05286487644960963,
          -0.1014428400072346,
          -0.08330659270385134,
          -0.12696162823379442,
          -0.1403818124161268,
          0.0012059508128897656,
          -0.00003174954044689043,
          -0.13277930409844171,
          -0.10075271526240216,
          0.0009369383235329233,
          0.021045230959156662,
          -0.1451376620417623,
          0.11577856850273102,
          -0.31992365525146715,
          -0.03366217522429852,
          -0.042360301639719246,
          -0.12800869680628754,
          -0.12123472068815237,
          -0.17475057601066996,
          0.07736826809827059,
          -0.07911300672819034,
          -0.0723413272293123,
          0.10340804340786619,
          0.0059995486318880666,
          0.24369146462325464,
          -0.038083302935762196,
          0.023494905955374765,
          0.011065538939300644,
          0.16887977197752999,
          -0.019939513135823886,
          0.15519394951528767,
          -0.05160908996984262,
          0.18460183393172108,
          -0.11007380434423146,
          -0.13737615500295675,
          0.11758154218451106,
          -0.07958095606543956,
          0.05321378097356711,
          -0.005478501338168334,
          0.020824057936070457,
          0.029890810711887105,
          -0.11189484362098885,
          -0.19051012147023091,
          0.0323468333308644,
          0.008916684590764145,
          -0.17656827570581843,
          -0.08038699015079596,
          0.14061594773632122,
          -0.0728284289312689,
          -0.07127090404758799,
          0.04006583626551381,
          -0.025050132770151612,
          -0.08406107408366846,
          -0.03587391270301115,
          -0.014944797603429373,
          0.03371347739123348,
          0.01846527745244915,
          0.08754455115192174,
          -0.058040938268034664,
          0.08785908075691516,
          0.10395801767107073,
          -0.046300917292920386,
          0.010030076678991386,
          0.14922954602209154,
          0.09769877877909922,
          -0.11828940861314823,
          -0.17981713253964637,
          -0.017770900430615754,
          -0.15062991671666984,
          -0.029913120756015422,
          0.0687547458637646,
          -0.14127533624731423,
          -0.13605793895359844,
          -0.06252374686402859,
          0.06780749114148756,
          -0.04262536890415064,
          0.08042102571003351,
          -0.0015350991468553892,
          0.03935914368403867,
          0.08456438693796567,
          -0.034925783812334195,
          -0.02599088438112292,
          -0.022817659197227117,
          -0.10659366733619914,
          -0.09031765006978883,
          -0.0547789729189959,
          -0.05066325959609612,
          0.22897255108319403,
          -0.13580004373281881,
          -0.17133886143439545,
          0.04983646325732643,
          0.025973030341225584,
          0.19147342537903442,
          -0.08296645835248942,
          -0.01927895384466844,
          -0.08489755757164634,
          -0.005260836861565033,
          0.006605944658670331,
          0.053052244671386445,
          0.00789024652870868,
          -0.0035334989925625213,
          0.2182005965954476,
          0.10105531857197139,
          -0.22541906433646688,
          0.02573064118159699,
          0.03235723890019952,
          -0.06713283362433889,
          0.030746986584542793,
          -0.21194439532817372,
          -0.1114027448321351,
          0.028914263272866142,
          -0.026122807238397435,
          0.10980768112491722,
          -0.06671513616651888,
          -0.0801644669235508,
          -0.15362672973963137,
          0.13269682010198397,
          -0.12294490075705901,
          0.02102877496957473,
          -0.06868136444470258,
          -0.11411338515549338,
          0.020292675124356042,
          0.005200845500077102,
          -0.17040746517897867,
          0.044809215541215856,
          0.09928413554708844,
          -0.16164548005668908,
          -0.15664159749872328,
          -0.027151909208742588,
          -0.06734290276702282,
          0.06417079842705174,
          0.07509496199205615,
          -0.09633498618811034,
          -0.07069023779581891,
          -0.026990434602034014,
          -0.16502717743797019,
          -0.054121998739678545,
          -0.12194141785158369,
          -0.04702085175112612,
          0.011755692183369732,
          -0.014522115197024826,
          0.15715408983033372,
          0.025547803593987638,
          0.10035146363836076,
          0.14240885983431506,
          0.02820828476036185,
          -0.1536689782274047,
          -0.0006605991912768392,
          0.14800037741452332,
          0.24209359688841559,
          0.06453887101926273,
          -0.0201847741571234,
          -0.2102097819314235,
          -0.03935863629336754,
          0.09876008215686147,
          0.06354197722875836,
          -0.0037423325011385483,
          0.11810176188991865,
          -0.11941424962939437,
          0.08863322015874645,
          0.01919275375051557,
          -0.1782964156272191,
          -0.19609827692334067,
          -0.042403025428163474,
          -0.15676898752070573,
          0.024380577811385508,
          0.04483942377024014,
          0.03379071059351117,
          -0.1043101778498946,
          0.0579827779594861,
          -0.022135731452470938,
          -0.18823853329058887,
          0.11082859067440626,
          -0.06387240373240087,
          -0.0947882999146281,
          0.02591496408061264,
          -0.07330227876760308,
          -0.05791536635601914,
          -0.11965693569121956,
          0.012430630234665264,
          0.04979374685386392,
          0.108882046307697,
          -0.134793966245305,
          0.09881711982573321,
          -0.08231939757135259,
          -0.11560768578212414,
          0.06097875174872974,
          0.08984170013255008,
          -0.07062579840140434,
          -0.08665002643643037,
          0.04888708465037864,
          0.12337441666811479,
          -0.10558558325719805,
          0.0063583592166170065,
          -0.18053797600220522,
          0.014340049756264937,
          -0.03380261022273536,
          -0.03771872915764102,
          -0.0031666799488048094,
          0.08146507224038012,
          -0.09761379754471373,
          0.005795921663666493,
          -0.10667219160711686,
          -0.12896089330457014,
          0.10745884763010649,
          0.009766966425240544,
          -0.11573768308152027,
          -0.12257819109908143,
          0.0930278410788849,
          0.16581400396549253,
          -0.14064900882340864,
          -0.06602062899946712,
          -0.041016716506870755,
          -0.08293036785446982,
          -0.14075904684228366,
          -0.16985001066357414,
          0.06102778408975815,
          -0.0725492774455786,
          -0.15140944143864354,
          -0.0697120767395667,
          -0.23536414001914974,
          0.03210437201980665,
          0.08056301173050938,
          0.00556857347789152,
          -0.028962960103490896,
          0.010262474908874181,
          -0.034538392029503824,
          -0.13002037513880044,
          0.12585492098032114,
          -0.04948359074432979,
          -0.05306237949063504,
          -0.11886288099926069,
          0.13447077319113449,
          -0.038713061309706,
          -0.15460038401120557,
          -0.11224161062261126,
          0.024324654399098786,
          -0.08743436755749937,
          0.0633418841217009,
          0.19897381443411585,
          -0.09005372380701593,
          -0.04756525239353573,
          0.0601149418897545,
          -0.047344971748390946,
          -0.017327016307289587,
          -0.04282393103279636,
          0.06838917069818327,
          -0.15811512237837777,
          0.0418525192656262,
          0.00267531181889439,
          0.0014861700274657005,
          -0.05209981032441599,
          0.0189256487656266,
          -0.09119903259026228,
          -0.11734225705705188,
          -0.04311143606773989,
          -0.059500775462247676,
          0.10920439420206263,
          0.08761900434012741,
          -0.03214709785309116,
          0.014410616665326679,
          -0.06514102621209908,
          0.06603857242956565,
          0.04082763501535396,
          0.06430070241058328,
          0.08331290977111928,
          -0.10230725952904102,
          -0.17389369760796627,
          0.06777154582467192,
          -0.20407599180195116,
          -0.04393925286611474,
          -0.1498007936657276,
          0.007458768930762953,
          0.07378690186677478,
          0.020376338991559603,
          -0.17412501073547007,
          -0.01743741783164622,
          -0.18120527914725326,
          0.0033093372172419483,
          -0.029858395019313463,
          0.03843094067467698,
          -0.09764979443272583,
          0.1400831093479333,
          0.005392830967321886,
          0.05732895608058362,
          -0.05875483627817067,
          0.1296342702384858,
          -0.08028950587412888,
          -0.12211498426458105,
          0.1077726300766034,
          0.08813582265433259,
          -0.0012840868757528336,
          0.14626463026465192,
          0.036934821464173144,
          0.009279943391508495,
          0.06340258717933452,
          -0.07335669865753193,
          0.08318497781949767,
          0.1287765972049658,
          -0.12290528522121957,
          -0.018453798802039744,
          -0.11134295311240106,
          -0.046727887571974894,
          0.0620264752296563,
          0.09174042199608816,
          -0.02444786870776342,
          0.0940927028155605,
          -0.12312061364333686,
          0.04678100416329033,
          0.0061415146365335245,
          0.09554458156054559,
          -0.2017673522853909,
          0.02052572811358677,
          0.06564498475222912,
          -0.04390025193040669,
          0.07028662157387433,
          -0.02707296239516024,
          0.066000268145012,
          -0.15763873585601546,
          0.05480869097806876,
          -0.08533721256491794,
          -0.018712080554770825,
          -0.12934908157327768,
          -0.11372725195059626,
          -0.027788929726077802,
          0.13715980712326625,
          0.07418717325779067,
          0.09486479188748477,
          -0.06770476926404675,
          -0.19586179661140202,
          -0.01971806075839286,
          -0.023332354377142123,
          0.06465140068177845,
          -0.04592663024027676,
          0.1087386705973572,
          -0.122656039901304,
          0.18380188385019372,
          -0.08500774401910757,
          0.008036517710536996,
          0.11854548626300454,
          0.14555987393608652,
          -0.12385838991743316,
          0.030822847630730305,
          -0.03596971200038508,
          -0.13945924833455967,
          -0.05178511659719691,
          -0.10078712041273584,
          0.0672939274173618,
          0.0270074076716104,
          -0.08857258578916884,
          -0.10858554682718338,
          0.039073541351691235,
          0.10585288257271448,
          -0.040198072479260265,
          -0.004790968260152375,
          0.09330358333335925,
          -0.07555322517399095,
          0.09596619258245571,
          -0.2084174473124293,
          -0.1339104827616034,
          0.11243430540304813,
          -0.05459882498994491,
          -0.03434443492479016,
          0.07222450261591928,
          -0.03797319179116949,
          -0.007403740443709619,
          -0.002681128417823679,
          -0.06941319851053797,
          0.20080399506516425,
          0.0494209529760696,
          -0.05116252507695996,
          -0.01102935410669273,
          -0.14729769758256586,
          -0.06685980934607758,
          0.00453648286846427,
          0.18034726591442785,
          -0.09924711199044997,
          -0.02714288067324873,
          -0.014812850391369549,
          0.03990651652197404,
          -0.1506227127639937,
          -0.2096411872837824,
          0.0935264877486344,
          -0.029385321744629232,
          0.058910154596582325,
          -0.23362423823342307,
          -0.08096035730797535,
          0.05886258448244115,
          0.14635445907420866,
          -0.0005799917568658516,
          0.007797425863043088,
          -0.03529959860646818,
          0.1705133813775511,
          0.037712734019596045,
          0.19693060845707183,
          -0.006977242380978518,
          -0.01617152431863443,
          0.1413518355633862,
          -0.045557477399530595,
          0.2256691547647955,
          0.07235722084260458,
          0.20065484664443192,
          -0.021219857358278665,
          0.21297727520408913,
          0.008069452734037447,
          -0.07409568071615967,
          -0.05919890953063422,
          -0.17311864409463798,
          -0.11393869228258743,
          -0.13634278511347334,
          -0.14347168353842138,
          0.06022327025970894,
          -0.10862707590393313,
          -0.1043677761414032,
          0.0683066919553334,
          -0.08156799904834039,
          -0.043142812712889535,
          -0.10918839372878772,
          -0.09265382360978446,
          0.06294323253710335,
          -0.03085762968547076,
          -0.15496703859523908,
          -0.13368734498973187,
          -0.11126203371145643,
          -0.08519488543013398,
          0.043046939149639786,
          0.2372827655998647,
          -0.25898954636065824,
          0.05325989578415927,
          -0.01075932122719549,
          0.25654884623576113,
          -0.17777162263984544,
          -0.13957865637794475,
          0.14137765310146944,
          0.0018360503485927823,
          -0.15288705652503068,
          0.07906279367431948,
          -0.05096415056976671,
          0.02714955133210492,
          -0.04923286710455343,
          -0.013141092089359579,
          0.10822508792053666,
          -0.07887057124075958,
          -0.05321043689795884,
          -0.04515666435650189,
          0.04650760521905971,
          0.07203349165276873,
          0.09499853396544244,
          -0.09158371928912808,
          -0.038254310785214664,
          0.22810727599955127,
          -0.1156606045835935,
          -0.035639818879796746,
          0.13295354544946625,
          -0.0751226052326998,
          -0.035540581250393374,
          -0.05620455919923159,
          -0.0008574030210842542,
          0.12673016838611645,
          -0.013567445768610647,
          -0.16164479478788557,
          -0.0001395732027780463,
          0.027979938521113575,
          -0.20232663766296455,
          0.11016188214964391,
          -0.23288039378895894,
          0.013352151162493983,
          0.039154539899941665,
          -0.1097972177083528,
          -0.031313919497623244,
          -0.03605292668019987,
          -0.13856884634690164,
          -0.14470637619815466,
          0.10354657782674831,
          -0.09214650965895912,
          0.03635423439457247,
          0.12939730126326318,
          -0.029369849637684537,
          -0.045175445258383774,
          -0.09725534351780728,
          0.05781476600084996,
          -0.12418598451877806,
          0.04506412340361484,
          -0.054146644723417015,
          -0.045833191483598046,
          -0.037043095066387345,
          0.16767331288176118,
          0.020223416978171205,
          0.15746889928353466,
          0.02385217671844899,
          -0.15731471946228434,
          0.020201768860086657,
          -0.08394820875789835,
          -0.015291983426055776,
          -0.04148601074034319,
          0.20315710300321244,
          -0.02913056870290874,
          -0.11122854588142747,
          -0.08669096214684881,
          0.033508817497629385,
          -0.09297848958823447,
          -0.043007035066351756,
          -0.03960673269394748,
          0.12718501722219921,
          0.01403740249731406,
          -0.02670490455004433,
          -0.005965794089247186,
          -0.10686340468506413,
          0.10543249881976773,
          0.01963603770946158,
          -0.005739397754608989,
          0.012892512904284661,
          0.023812505639754563,
          -0.12275843842876227,
          -0.07557259190828,
          0.03965728223524907,
          0.0005703798785842162,
          -0.24752550720625371,
          0.022646610640603776,
          0.03611243720318481,
          0.08129370580653171,
          -0.06826143262292202,
          0.03496517852985386,
          -0.16250012474690495,
          -0.10985337473041316,
          -0.050662994095483325,
          0.1307320168383681,
          -0.07337875457349739,
          -0.17862180800746952,
          0.0645511717577402,
          -0.11257661977470394,
          0.044393731818593504,
          0.13408172989499045,
          -0.2921649425565478,
          -0.09107914515436895,
          0.13567692017989885,
          0.22641733899221558,
          0.1117104201829033,
          0.1551472295829509,
          0.04656381213891991,
          0.051314259635851935,
          -0.12944062343041846,
          -0.06335322982357328,
          -0.08840266565947688,
          -0.06236975659480124,
          0.11425499902721041,
          -0.049495812192947373,
          -0.14004831457495287,
          -0.057409975388737225,
          0.04573895453333101,
          -0.04494563768873935,
          -0.007145327985661496,
          0.1503462033281221,
          -0.17229949925259205,
          0.0532141288306288,
          0.013117468143274372,
          -0.11513493923652562,
          0.026454187834550107,
          -0.08401304436181925,
          -0.01177347846975155,
          -0.12605857922704325,
          -0.014304882009777224,
          0.15862965422006298,
          0.0172343122181174,
          0.01461285750773058,
          -0.07784026559289663,
          0.06348157488819092,
          -0.12588286743538127,
          0.07072675815593245,
          -0.12843256670191827,
          0.20774083890290235,
          0.022298880660409196,
          0.06323420228069508,
          -0.035795763524070066,
          0.08328940989636545,
          -0.1353271219024792,
          0.05594421862042473,
          -0.1173066995808476,
          -0.013967177585527034,
          -0.15029285513341,
          0.15284165378625256,
          -0.0332597903102281,
          -0.01890366559265978,
          -0.008513583567365696,
          -0.1026916907295964,
          -0.0634042854837927,
          -0.052920431111953936,
          -0.01542662462646242,
          0.07733870675484217,
          -0.08589028850481106,
          0.1795791660073259,
          -0.08415383311310563,
          0.06843709269421853,
          0.08981987480625633,
          -0.04683326502935258,
          0.012818625191049903,
          0.006714190219727732,
          0.06117207788967278,
          -0.19804117427219461,
          0.10794007301459362,
          -0.05172474524609548,
          -0.11233046570582494,
          0.05715075920928685,
          0.051716453490319475,
          0.07183594000215666,
          0.08795419349394548,
          0.10572146393357737,
          -0.2001508211338853,
          -0.0050200990678325235,
          -0.18884943322311443,
          -0.12794926637935888,
          -0.24687285941073622,
          -0.003744410852078935,
          -0.041736472398051214,
          -0.07471296680762125,
          0.00031125828536881774,
          0.03313179189229603,
          -0.265941080889699,
          0.02638084009162922,
          0.17262434667810192,
          0.08764295703215164,
          0.02315863109462715,
          -0.007810186876116993,
          0.09908125037381907,
          -0.0106647721195602,
          -0.09984345745913076,
          -0.014928133606716494,
          -0.09494755649529904,
          -0.04889525223436221,
          0.04546248943478153,
          -0.029495065214401466,
          0.08096105616998993,
          0.017443552702947403,
          -0.03587147709858169,
          0.04996159752245058,
          0.11943856295006398,
          -0.18176395304853016,
          -0.04921101381827732,
          0.088278297236616,
          -0.05949861861026678,
          0.14156492296599388,
          -0.052618164007059695,
          -0.07027575478579993,
          -0.056316602231455966,
          -0.013008265019445084,
          0.010824234761193936,
          -0.09860846308258517,
          0.12559715085918086,
          -0.11119183721924022,
          0.018015242718149336,
          0.09431726224923842,
          0.05566844538153811,
          -0.014629373698351218,
          -0.2976254604781723,
          0.11826128557978027,
          0.023339809079675568,
          -0.15363798503928455,
          -0.06383983646628619,
          0.13395255898382158,
          -0.02022469107160733,
          0.025040015871279457,
          0.07966250062199642,
          -0.0035900903516540386,
          -0.022856434934904135,
          -0.010821824810667376,
          0.04082663559631694,
          0.13918460365789953,
          0.09065199105439989,
          -0.07977272907915046,
          -0.08250956927503394,
          0.15217753017869595,
          -0.05181227160808779,
          -0.12776547566724716,
          0.10882598936940166,
          0.030627497284237366,
          -0.02033061689342715,
          0.01018868778220555,
          0.04970672661470343,
          -0.1237198028982268,
          0.04545013273092036,
          -0.031087996053926245,
          0.03131252017298342,
          -0.140632483822138,
          -0.07293199927439117,
          -0.0023002637573551828,
          -0.15673671132017017,
          0.06200869020019252,
          -0.003344390318854301,
          -0.05981536199525352,
          -0.12474628063814162,
          -0.05458148211635404,
          -0.0248616460467654,
          0.1411080419572647,
          -0.09719965062691599,
          0.09412552183646394,
          0.11461397654974183,
          -0.10445778233005652,
          -0.2226476722734436,
          0.21942705937300333,
          -0.02659936087905117,
          0.004685836513707129,
          -0.11961023850954666,
          0.17046731748816035,
          -0.045289887534425415,
          -0.15716669038369402,
          -0.10543146315057055,
          -0.07767657610602648,
          -0.179019051066851,
          -0.06434540536818796,
          -0.0012184881851105317,
          0.22789673387396941,
          -0.04246947329400844,
          -0.036076204367061514,
          0.027883995074263077,
          -0.12856451582428516,
          -0.08721372705065654,
          -0.18656941540567037,
          -0.20674373627833542,
          0.10638164579906471,
          0.09115908491737981,
          -0.07910051028300441,
          0.05044400400331516,
          -0.05107514448772536,
          0.1033569341359584,
          -0.042533568574719356,
          0.08644988639128642,
          0.08995166151231364,
          0.011888250234704871,
          -0.053668917011175744,
          -0.13782584400065007,
          -0.13241182166273016,
          -0.09090503758825061,
          0.03379183992939472,
          -0.11664938927153581,
          -0.12156526398192753,
          -0.22137500488919926,
          0.1234438138195132,
          0.03995717296992618,
          -0.0471891540695368,
          0.14010146071455762,
          0.12678211401273526,
          -0.03427079814126197,
          0.0877147943042396,
          0.10059159098331358,
          0.037835758599812086,
          0.07644202033403087,
          -0.15393197901522793,
          0.016945561531921498,
          -0.14926378456412054,
          -0.0007743669715746411,
          -0.0737777584414631,
          -0.0816469768727959,
          -0.09094850663802752,
          -0.2563154625637681,
          0.03144811889661864,
          -0.06256767074910301,
          -0.14390100690383872,
          -0.000397825628165926,
          -0.10665295217268625,
          0.07833158636490171,
          0.10920164327026304,
          -0.07726426710423417,
          0.03492162322026671,
          -0.18259027469405126,
          0.0005758316625004899,
          -0.11200339773563456,
          -0.033728528765102524,
          0.051194807476226435,
          -0.003214020661800693,
          0.03648275178503745,
          0.055069883496932565,
          -0.1573039752896826,
          -0.004311812224720494,
          0.09022894394256989,
          0.010237608304342597,
          -0.016345622124681734,
          0.05685436233538819,
          -0.05053015711408954,
          0.21245844388305804,
          -0.104505057880675,
          0.08537696165471585,
          0.06038828877274183,
          0.06504036416955594,
          0.0769803374751408,
          -0.13016207910529545,
          0.028793178159900918,
          0.07984025588819896,
          0.09393842499489889,
          -0.0005927784918417679,
          -0.02299249151431543,
          -0.0839347542002692,
          -0.14498443110003417,
          -0.005985127763450674,
          -0.014311810970640354,
          -0.17616298018347004,
          0.13476877930859507,
          -0.15753266742700514,
          -0.22337072814797726,
          0.032203962643535436,
          -0.14685496700405773,
          0.2086286016709562,
          0.04086494330440859,
          0.2559979092896527,
          -0.08372938791115078,
          -0.14041566130091215,
          -0.06816274068469756,
          0.10191112042319782,
          -0.047381911125018966,
          0.1318627499547932,
          0.11602093107403058,
          -0.03483628946181697,
          0.06576854385665658,
          0.044371493586672965,
          -0.022124521580960926,
          -0.053386880549602514,
          0.1770445548404123,
          0.001746538241790565,
          0.03098759367316745,
          -0.062387883178310684,
          -0.08206890699261382,
          -0.03487747407175798,
          -0.07196881238377871,
          -0.26398390448920295,
          -0.022903747803215056,
          0.16610691140759046,
          -0.0963562725673945,
          -0.022708781013303817,
          0.07973205414949588,
          0.0631882956753984,
          0.04571410920614387,
          -0.04567203018389721,
          0.10590610627782761,
          -0.03191608335049549,
          -0.0008517121225234466,
          0.1032426676676265,
          0.14525734592417747,
          -0.019778753241550633,
          -0.06044455323545171,
          0.02305654381853742,
          -0.06417206599317474,
          0.13626363171712624,
          -0.04153998748711014,
          -0.11858575867701313,
          0.0735196912953219,
          -0.08923778160120077,
          0.07471129660440126,
          0.06490525972715393,
          -0.046865071906638,
          0.015526022036614417,
          -0.051013626409104916,
          -0.24992274437230746,
          0.1474000599100494,
          0.05556296702491927,
          0.10115459969482068,
          -0.011746981569322005,
          -0.18925267812973395,
          0.06521718499153933,
          -0.15994834266978222,
          -0.08676428535674317,
          -0.025604428593093826,
          -0.02507844849288761,
          -0.08180098868127074,
          0.13092661450575513,
          -0.08155523745948222,
          0.07706485025264999,
          -0.07714474013811182,
          -0.11273094566958075,
          0.07883446510990397,
          0.11054628184296178,
          -0.0898859584973868,
          0.14543856301347943,
          0.011902953731305238,
          -0.12522060889900288,
          -0.08308862623974053,
          0.06670537458040891,
          0.08196061211091413,
          -0.15075021449334677,
          -0.06983842620656622,
          -0.08051346377915398,
          -0.07979033647930482,
          0.041680240789892575,
          -0.12759542632241377,
          0.06425317039246815,
          0.19059221985316963,
          0.06028165694329856,
          -0.06904752228661058,
          -0.19875830604845227,
          0.047849019759180635,
          -0.01822489886137708,
          0.0495886783630641,
          -0.007573660406068696,
          0.07855050581896067,
          0.035770289231938875,
          -0.11225899463321665,
          -0.07619509211577044,
          0.01865733444377961,
          -0.11676883686666477,
          0.08006950578682268,
          0.09157798781779758,
          -0.05668204913240796,
          0.0009648431757403308,
          0.15407572854504772,
          0.018000806107695996,
          -0.049803677770563916,
          0.025027156867217917,
          -0.02065151167764217,
          0.026200041477517918,
          -0.1988113125201901,
          -0.10652904876203922,
          0.031446366878011014,
          0.128278374323164,
          0.13855724457103546,
          0.014406301097627005,
          -0.1288139734751466,
          -0.00043538614174037915,
          -0.07654956818762193,
          0.01688444711268914,
          -0.09373832067032477,
          0.14244626102858668,
          0.1295953213107149,
          -0.007710941374427128,
          0.043170641506021804,
          0.133721099321428,
          0.07291880833648572,
          -0.10281635780015094,
          -0.11466305182764652,
          -0.027315339802629512,
          -0.10839696574380277,
          0.06578973304015841,
          -0.02753201185985298,
          0.02061074692135708,
          -0.1977664910879954,
          0.0051249603077483065,
          0.09685007981979431,
          0.07046843710531381,
          0.017211263979645702,
          -0.07074219975163294,
          -0.04443751029583207,
          0.11579258426690611,
          0.08687747573339175,
          0.07489343428068722,
          -0.06926967000163911,
          -0.007034321739346288,
          -0.08158091042741764,
          -0.17254197875176955,
          -0.20299547523672676,
          0.15422063612191358,
          0.06398203207184573,
          0.16017286438998252,
          -0.053870279197459486,
          0.23019320091833978,
          0.22003623010448958,
          0.03930621057213494,
          0.09109426935537367,
          -0.11653047328189704,
          -0.023512338394412535,
          -0.007102649752072765,
          -0.026632943827994932,
          -0.013206178754162816,
          0.08839679703705071,
          -0.09522251810660218,
          0.023117906325669558,
          0.08381201407024944,
          0.06465523232902519,
          -0.16083399641741672,
          -0.01326649041838738,
          -0.059082641320157205,
          -0.04429992516631069,
          -0.22244952152922096,
          -0.03391303170241487,
          0.11217579844022861,
          0.04066942534374487,
          0.14282683015413986,
          0.07007981324320929,
          0.1258959122858464,
          0.00774733058146807,
          0.06629171027461181,
          -0.05015965237297455,
          0.07543177164356603,
          0.1653556121634168,
          0.1576267204196723,
          -0.1373796950736368,
          0.045670137954476955,
          0.031075835586123358,
          -0.09378577585259168,
          -0.09131694561317577,
          -0.0073832921548411205,
          0.030277407802791957,
          -0.07011007882374318,
          -0.22918858669158593,
          -0.036939022682724934,
          0.04045297801295532,
          -0.06243064062971361,
          -0.08987361179287236,
          0.009437764103044831,
          -0.04657691290606392,
          -0.03454509872170557,
          -0.0582817959623267,
          -0.04384772296256524,
          0.034989724459068755,
          -0.14593507408598574,
          0.025313768977079893,
          -0.06160456197074804,
          0.15486354819835804,
          -0.0185088653994922,
          -0.02292011867562137,
          0.023838087008240232,
          0.09616198326758399,
          0.035440513651222465,
          -0.010756806257775834,
          -0.057832642340035476,
          0.013899841772749267,
          -0.011072981886752776,
          0.024625534124616082,
          -0.03653530817126633,
          0.030670130343234205,
          -0.3005873013740473,
          0.08631841794370483,
          -0.05268657990429972,
          -0.002530884538216972,
          -0.0011265601727026536,
          0.144316507803919,
          0.1216751834570489,
          0.0018109846841598348,
          0.15893659366919402,
          0.12868328704041684,
          -0.1510731869699076,
          -0.038083884799245994,
          0.17281792306064558,
          -0.05220625866729733,
          -0.0004846690725779122,
          0.10057403474433461,
          0.0618514388556829,
          -0.0568764579261117,
          0.025229998767408165,
          0.1213301445669047,
          -0.04960600741880788,
          0.15595405019388328,
          0.17485882216784532,
          -0.1421596130059784,
          -0.09456192032311095,
          -0.16922081237605893,
          0.06417446381151433,
          -0.039706041288824045,
          -0.15852982118935782,
          0.08198867311837336,
          -0.10705757103976137,
          -0.13120502277316143,
          -0.08419056329417744,
          -0.12596605958692672,
          0.09677024282164683,
          0.12125850951397912,
          0.09921223660243586,
          -0.31147176401801474,
          0.002772746639782404,
          0.014086418095322361,
          0.004211588250593983,
          0.014574555598497563,
          -0.11929848641683374,
          0.01998236703447906,
          -0.10064567259984884,
          -0.13459080918435284,
          -0.017478467748268275,
          -0.10519674087035343,
          -0.030526934026858178,
          0.08161408148916792,
          0.22294430996236828,
          0.1804259290987593,
          -0.045876363936480376,
          0.017512179022638047,
          0.034513382538434806,
          0.10516682922873458,
          0.015789521695267008,
          0.034621362028526614,
          -0.05142030462726636,
          -0.10563443282135718,
          -0.2962515473526023,
          0.11154168942223396,
          0.17277380261157785,
          0.08166448165096236,
          -0.12880127514852283,
          0.06442861847563726,
          -0.11598721965184065,
          0.023276826079409126,
          0.23301632190171054,
          0.05836097566277586,
          0.04385982451789063,
          -0.15383834227222556,
          -0.16949100484121546,
          0.046804952658458146,
          0.039363718275026514,
          0.09512947285247529,
          -0.2500225174995943,
          0.09391891665578542,
          -0.05375108457560219,
          -0.12467902229402167,
          0.008728866997795157,
          0.0497238115183914,
          -0.09068293373412586,
          -0.06743330172362996,
          0.13692122008271373,
          -0.15112547304057722,
          -0.0026703059612902653,
          0.03188152533132219,
          -0.019165984833822924,
          -0.052573294928934526,
          -0.15043772724985818,
          -0.054548247401958835,
          -0.18912501831988074,
          -0.028559981527347348,
          -0.02697979836177082,
          0.09570722295796992,
          0.04419811942327677,
          -0.18104998664720237,
          -0.04707822256887436,
          -0.2911631017681029,
          -0.03196336789155673,
          -0.03515187285699577,
          -0.16412592366463788,
          0.0030994745624729645,
          0.16310660713764477,
          -0.1519613795674259,
          0.04772602552341898,
          0.17973195842416045,
          -0.0897230715191782,
          -0.10926714770260505,
          -0.025965642371190277,
          -0.007721786686812824,
          -0.0548873788940748,
          0.04249046452080506,
          -0.2114538817884757,
          0.014444573161958983,
          0.10816696881150241,
          0.006249319263278058,
          0.011297779783453137,
          0.11861069469041832,
          -0.0290596291895382,
          -0.09268167126350654,
          -0.18665932798859963,
          0.09603971164203275,
          0.13624085823489437,
          0.08492490755472692,
          0.15731249394605182,
          -0.09968326412416782,
          0.03675713026886289,
          -0.05256846853197215,
          0.1255573412110466,
          -0.029512468830628354,
          -0.05654474234359916,
          -0.09543889151360625,
          0.11386890550858614,
          0.025112889783691264,
          -0.07559942402830179,
          -0.09366070965377452,
          0.05649131576197807,
          -0.02305156004277305,
          0.11184577257468192,
          -0.03908415245641482,
          -0.030027723929491254,
          0.09620945554370784,
          -0.22365655982255853,
          -0.17303135011171003,
          0.05634388056397129,
          0.06316906297802397,
          -0.0028350005996753695,
          -0.07086035901225339,
          0.12997953706546553,
          0.00426563300576455,
          -0.09036645764832188,
          0.01341877908224736,
          -0.03553432729483048,
          0.09836550513626287,
          0.026430183675856738,
          -0.01632091129216576,
          0.007416948164207716,
          -0.1230011092267094,
          0.07073988628953966,
          0.01543389388183346,
          0.0016275208620309747,
          0.008689201304368854,
          -0.011928286481975695,
          -0.07057826982915436,
          -0.19327366843835073,
          -0.21485434714752788,
          0.12013139875207726,
          -0.08862720206932599,
          -0.008767899808526766,
          0.013954122135652319,
          0.0038875277635784843,
          -0.12594964720625815,
          0.10087958326323507,
          -0.03236118657884769,
          0.008853329561981654,
          0.03634888905783178,
          0.08021642004778198,
          0.26679614812102603,
          -0.031420325533725056,
          0.1705918133403501,
          -0.06970696748414586,
          -0.1126508291284173,
          -0.03018180898220737,
          0.07167987723628898,
          0.09074981775497283,
          0.10441927165904065,
          -0.01059708688067497,
          -0.10464861711997159,
          -0.049236753157271655,
          -0.028768734612577694,
          0.04270267826380127,
          0.0357039509775771,
          -0.027594941384566748,
          -0.0565047665190764,
          0.05164961928337493,
          0.09890180986067593,
          -0.10433868390724338,
          -0.08161993903450897,
          -0.01275855399265913,
          0.07347800070353531,
          -0.035956989290031126,
          0.005275438801349531,
          -0.07520784554035338,
          0.03679331585542913,
          0.09493235995871553,
          0.0008121063064050126,
          -0.03707762929725198,
          0.001975252441592679,
          -0.147446628756674,
          0.004128170850568205,
          -0.11318405657390201,
          -0.014127927439800885,
          0.1891345954627054,
          -0.152803348987019,
          0.09888291079498839,
          0.03241851559395844,
          0.07054257030364294,
          0.022948930895920382,
          -0.018613030339502717,
          0.03305920669584669,
          0.13562752086933885,
          -0.09539227097393245,
          0.05810360724098036,
          0.022060574373599637,
          0.0774745204512615,
          0.07801009264826556,
          0.11633448905410898,
          0.20986041482221188,
          0.2225898946257469,
          0.14047041399310015,
          0.05312052400780083,
          -0.12077335872391548,
          -0.06766809886906702,
          -0.010199015358264129,
          -0.06322192280909492,
          -0.13751494400783876,
          0.013183695023710125,
          -0.14100968344817622,
          -0.11721184218280004,
          0.027457832276423125,
          0.07816004227451616,
          0.08913387464841911,
          -0.021063714537389252,
          -0.2100847314978701,
          -0.008895035302843878,
          -0.13406101158375075,
          -0.1507918045826511,
          -0.014486029006079313,
          -0.16118218688586897,
          -0.06419293591512112,
          0.0018668186589324482,
          0.06657655107529005,
          0.22846997162986502,
          0.08369573530360326,
          -0.07414934758081744,
          0.1526151388975133,
          -0.07558374978961185,
          0.04429054175760732,
          -0.12035526441378727,
          -0.0462626358194346,
          0.1617578227402258,
          0.07385925288945125,
          -0.007986059306122423,
          0.017546439466087475,
          0.08730359766095074,
          0.10394243812308723,
          -0.09695573906665848,
          0.039535787146978654,
          -0.016861015131038014,
          -0.16500813112365253,
          -0.037619402015038134,
          0.21867413163153623,
          0.15759777496299054,
          0.09765753328780012,
          0.08467488759114869,
          -0.007125160498954897,
          -0.09184986526957167,
          0.05597751791389208,
          -0.0832665022900474,
          0.14922281245173513,
          -0.01594352365097337,
          0.07216847909265708,
          -0.22255345078615152,
          0.23088851248153522,
          -0.14726010625587058,
          -0.1466810959075861,
          -0.14870605985692106,
          0.16632778793141903,
          0.07802336054028511,
          -0.046777916570246665,
          0.04859943600989189,
          -0.02454523092904491,
          0.09197260434605375,
          -0.06598502216729245,
          0.04517655709687644,
          -0.11360968628258308,
          -0.0663938271079242,
          0.03208899079058011,
          -0.01594529179953803,
          -0.13274279518914364,
          -0.028249495509702738,
          0.07231423855751547,
          0.0927477145255436,
          0.05999537494543503,
          -0.0547066536117078,
          0.06360020993739529,
          -0.025005267967240227,
          0.13699908076502723,
          0.04726266541416238,
          -0.17951072148983446,
          0.07988408619995825,
          -0.09009614859374482,
          0.014801870338263873,
          -0.17889577423675454,
          -0.04775818243739975,
          0.022717477505684164,
          0.107536842784324,
          -0.29166677498245513,
          0.011623683111766384,
          0.12297302217065745,
          -0.08929868985199195,
          -0.07446007322640916,
          0.08078660132440937,
          0.052480334133935734,
          -0.026831908542925248,
          -0.2890747324673199,
          -0.003335827540847958,
          0.10989540742971277,
          -0.1024952214147967,
          0.0846465471506941,
          0.11420608498977253,
          0.04678903345480723,
          -0.057940896745743,
          0.13435772490360812,
          -0.024387362950232257,
          -0.04935918636577758,
          -0.08249532008953285,
          -0.04075978268632087,
          -0.06924946265712446,
          -0.06196977433166658,
          0.10060139479324473,
          -0.05270128095404526,
          0.049930895681288036,
          0.07225656743330722,
          -0.27906576072027656,
          0.12971175035218172,
          -0.08234442233689386,
          -0.2032936099685831,
          -0.04908327591061166,
          0.04650151917991159,
          0.030186626474156687,
          -0.05806250408188621,
          -0.21643385807094856,
          0.07676142146792968,
          -0.16460565408323805,
          -0.16202102864053158,
          -0.04500498637852916,
          -0.0395983532158128,
          0.038747275495226614,
          0.02282148003681942,
          0.055217412938335875,
          -0.05603797258878237,
          -0.024100538214882342,
          0.0348765560299722,
          -0.05450374846934202,
          -0.014194574836196537,
          -0.005515452985983831,
          0.13997601463050155,
          0.03362783231025194,
          0.0282284159513013,
          -0.04795061692047525,
          0.060243955421973035,
          0.06252977420425473,
          0.0005857324402373015,
          0.14630469008739397,
          -0.11281397421040815,
          -0.16231813411971968,
          -0.02995203305499116,
          -0.1563411794724362,
          0.005581424433573136,
          -0.03406517342996064,
          0.10246498905261218,
          -0.1296083106291936,
          -0.0678218986249065,
          0.14929545479039225,
          0.04269576708603217,
          0.08746008058593732,
          0.042426367450441975,
          0.06609695594770196,
          -0.03918772344605623,
          -0.16380491002921044,
          0.10119998223017006,
          -0.05386746411056985,
          -0.061896255129728975,
          -0.025643402216069894,
          0.0703436674936037,
          0.03204732831945075,
          -0.16508327865159209,
          -0.003462683096690009,
          0.000120023267765976,
          -0.04561680012383935,
          0.007672763169325851,
          -0.04391129096610134,
          -0.021001599232824648,
          -0.011995522399242727,
          -0.05227719848614504,
          0.001864262229092313,
          -0.00010448956426822596,
          -0.016347765046871132,
          -0.015979860495577196,
          -0.0858145168163848,
          -0.2322456957398514,
          0.023608805945023438,
          -0.10098083585237919,
          -0.013098323679468192,
          0.01865922044006565,
          0.015589774342371496,
          0.15118142226212253,
          -0.07271743706585765,
          0.1607302772219029,
          -0.14196566210004335,
          -0.0326038527517798,
          0.09929377982008543,
          -0.0430731418453036,
          -0.06073151907884938,
          -0.12092843846051055,
          0.06420381277898303,
          0.09982654686232986,
          0.09768806462556903,
          0.20303845569988177,
          0.06270181832529534,
          0.027314466076979297,
          -0.17104110356125046,
          0.06674058250994284,
          0.05897680217662649,
          -0.040256589590342284,
          0.025135805950053384,
          -0.12078404830668654,
          -0.08982901713073024,
          -0.03179783301541415,
          0.029692612520151193,
          0.017282591018258363,
          -0.1484121269314148,
          -0.00046945778428851765,
          0.11906382959676111,
          0.002820501035409856,
          0.0829225385585589,
          -0.08498133077167955,
          0.06196656426710812,
          0.0779706540817685,
          0.046680718511088966,
          0.12887193221038484,
          0.20659532409621406,
          -0.12293050016784267,
          -0.21410805900013766,
          -0.0018243363311374475,
          0.06638010954454628,
          -0.04581077224500784,
          0.13752183152942551,
          0.09088586482822479,
          -0.14398697689847675,
          -0.09147610062910588,
          0.04636936969455173,
          -0.05528123582493882,
          0.2193044050926284,
          -0.025070979307788083,
          0.07505863812649928,
          0.04611893856815757,
          -0.06470723228351609,
          0.07574709229969166,
          -0.1328040727613834,
          -0.01668272313698809,
          0.11953005814155994,
          0.13953917925920578,
          0.12715207911390175,
          -0.02555760270482743,
          -0.05683440147929793,
          -0.014285114296225235,
          -0.23296945147811238,
          -0.06665806743084007,
          0.03785642063854906,
          0.0466258113395965,
          -0.08448641021082925,
          0.1610817976520904,
          -0.10581836767165657,
          -0.048470665665886134,
          -0.0990087217625208,
          -0.033670603285143215,
          0.028106084704633643,
          0.0363955189195991,
          0.01333857321840522,
          -0.16233225691546016,
          0.11961955985531003,
          0.1270452356789843,
          -0.09421548883827124,
          -0.008386016454541725,
          0.004164137722295005,
          0.11118985200854589,
          0.12566025754714472,
          -0.00686466855495508,
          0.11812326066547794,
          -0.10733489466511784,
          -0.25099558903282454,
          -0.007610033940335887,
          -0.03485847711682134,
          0.024380846676994746,
          -0.02090399295476467,
          -0.006432468924347832,
          -0.10418758977427392,
          0.012956082201624376,
          0.1150736726006617,
          0.12545239899200988,
          0.16655386476944756,
          0.09455127677325743,
          0.11344271001999248,
          -0.1487145048876648,
          0.06240785960378699,
          0.0045066039485877,
          -0.08817234734755909,
          0.09787687504412568,
          0.08991364614855023,
          -0.02516320826922344,
          0.21211683127764266,
          -0.13860985677335952,
          -0.04657107908857259,
          -0.03526018566988005,
          0.016690128760442183,
          0.20144336552752926,
          0.01041877319755461,
          0.07585939783879377,
          0.0299053848094936,
          0.19894201425595576,
          0.04719002899471249,
          -0.039014326485653984,
          -0.004815976375687641,
          -0.039150056338710416,
          0.06358176889332014,
          0.10995361712502211,
          -0.05248058014216873,
          -0.18913624728650336,
          -0.032664856822142097,
          0.11896448319373587,
          0.01052864290495334,
          -0.06296354514955167,
          0.07350668796299174,
          0.12242774111526412,
          -0.01263427871145725,
          0.2555316381675791,
          -0.20592309301570025,
          -0.022695657474052007,
          -0.10074180473340698,
          0.014970341536241164,
          -0.06792142084681431,
          -0.06817765203171954,
          0.17161267053320092,
          -0.0998400183734261,
          0.03935547978026292,
          -0.10426301018768226,
          -0.036030660616398404,
          -0.052961567965497384,
          -0.1252840781801501,
          0.06593680246810046,
          -0.10352621301701254,
          0.0013356274028289159,
          0.03031510111179452,
          0.023178411548347072,
          -0.015577043335545238,
          -0.05857452850666697,
          -0.0799539808997291,
          0.10435335080108508,
          -0.02082366826459194,
          0.04202205221021176,
          -0.05618703714650647,
          -0.05538420683284897,
          0.06648947973800867,
          0.026036936926466157,
          -0.08322589780189692,
          0.09111136735972941,
          -0.01403813043931719,
          0.11165118656492092,
          0.021544193832741004,
          -0.11065513210754957,
          -0.1592718708487771,
          0.11464271628703032,
          0.025360606173368046,
          -0.08441392037589297,
          0.09177948756187376,
          0.1204815845324346,
          -0.16142850743741716,
          0.19023782015346738,
          0.0262187928166058,
          0.001004731294778986,
          -0.002244839234270225,
          -0.028652606147965012,
          -0.017460880014869645,
          0.019614719393218585,
          -0.08904409555609138,
          -0.06949653688491553,
          -0.041932923456914205,
          0.2434720801332131,
          -0.051539630844412904,
          -0.030296496929849915,
          0.021032622094403416,
          0.11162629950707936,
          -0.060794137953484415,
          0.15686851217578418,
          -0.09616749877307296,
          0.19322436848074298,
          -0.1276392145900133,
          -0.0671609641488721,
          -0.07585194981735502,
          0.10376078080932752,
          0.026850190655777303,
          0.13852912613514415,
          -0.01552892203738801,
          -0.060341067606271295,
          0.09332364566235318,
          -0.13928893099665113,
          0.09863494788234814,
          -0.03162042744987198,
          0.03454570501381936,
          -0.025791114972145875,
          -0.034259876759240714,
          0.018317096905951086,
          0.021744854099670887,
          0.04865081576816426,
          -0.24353456239158944,
          -0.11378234143119269,
          0.002789343860275784,
          -0.27904660177457913,
          -0.05915879636723263,
          0.005318454169087286,
          -0.0015090402783648606,
          -0.07138985216230606,
          0.04484293992426683,
          -0.1308034642290185,
          0.11633338796757829,
          -0.024460638155244113,
          -0.053901030324031,
          -0.04677321225559731,
          0.08377858046228663,
          0.12463566229196874,
          -0.08437320257992553,
          0.03247816277587932,
          0.00747799905599015,
          0.005984979625156005,
          -0.008861327834989935,
          -0.1130365625886072,
          -0.02547497868366817,
          0.1094765737125272,
          0.11871547864317984,
          -0.02103790816267918,
          -0.11793717360633503,
          -0.13458186264202338,
          -0.09247931956217943,
          0.10862403696524607,
          -0.011264718791372868,
          -0.13242013118323442,
          0.07702454324310998,
          -0.021414788536160065,
          0.08020113565481425,
          -0.021489853724636496,
          0.21342820844068874,
          -0.06605893165668571,
          -0.07940712850788224,
          0.19975796376354216,
          0.014076720600146135,
          -0.17397536676795733,
          0.07790005184472183,
          0.09110151980611997,
          0.047547301093835766,
          -0.07447635193416262,
          0.0006403454121071668,
          -0.033491633581957565,
          -0.002380383214460072,
          0.07241662315673178,
          -0.20530072468197547,
          0.038835549200012975,
          0.0007622625468362291,
          0.06547284151525186,
          -0.022539472741459503,
          0.04174573299223217,
          -0.04436328552572973,
          0.11488815580482695,
          0.11917957732887655,
          -0.23288454157510424,
          -0.10161783436296343,
          -0.04085230140159746,
          -0.12712009692137247,
          0.0773393743112564,
          0.01355769121630858,
          0.07483640200881439,
          0.2344326182986622,
          -0.026721303968317987,
          0.00013213608583279328,
          -0.053865510804955385,
          0.20056682649284083,
          0.03344075127707821,
          0.035492337659693965,
          -0.06142160617828334,
          0.15702926556918662,
          0.10286640179889077,
          -0.043613655512768724,
          -0.026375094891967966,
          0.07958304758562286,
          0.002548944193247325,
          0.06408022947170168,
          -0.07497663890091377,
          -0.16956839853641575,
          -0.2358376194761526,
          0.07476024518579961,
          0.09655543989804305,
          0.04478196208113151,
          -0.05457750360441409,
          0.05628365650812549,
          -0.24321186986752585,
          0.008926061303594808,
          -0.037147992389575606,
          -0.06862717523677613,
          0.06418637523523874,
          0.07640177129106798,
          -0.14068827390782115,
          -0.007692202482585221,
          -0.1450236243638439,
          -0.030981378139496665,
          -0.0025365033125539314,
          -0.08893936246377612,
          0.009270034331467858,
          -0.11206564980781895,
          0.03833211149485916,
          -0.0242344796291043,
          -0.0507999859940997,
          -0.02601768698586883,
          -0.08392043590210561,
          -0.21740089200549678,
          -0.0013122008179893257,
          -0.0033055250608151634,
          0.0069297278826873435,
          0.06366037197429247,
          -0.022111808982412714,
          -0.06341258357548962,
          -0.042774191560085086,
          0.2198011143941492,
          -0.07609627017733887,
          0.056281137144049774,
          0.07011687550578347,
          -0.04341954233277537,
          0.06279000163563363,
          0.13737919729023101,
          -0.06559094285701328,
          -0.0057378034601674914,
          -0.06905460850797132,
          -0.10116575374635892,
          -0.02929125581524301,
          -0.11131462273546644,
          -0.029964702798783934,
          0.028154752469442577,
          0.03996057990177286,
          -0.04349548857034151,
          0.09641139001779529,
          -0.009881220497863654,
          -0.12771354962505638,
          0.05588172032702765,
          -0.09301905444911308,
          -0.03078763866115565,
          0.02671647165842798,
          -0.04018344427696123,
          0.14333824027795766,
          0.04018461748658104,
          0.058148331420321504,
          0.08440854410531548,
          -0.03269345635309136,
          -0.06027738449556363,
          0.04907588575797912,
          -0.09264049438384558,
          -0.03449719430003889,
          -0.02214821657327832,
          -0.11262781354514168,
          -0.27683195352058054,
          -0.15984779571121283,
          -0.049054182190305724,
          0.10673905207095004,
          -0.0785576154244157,
          -0.0395327200985139,
          -0.07618729474503429,
          -0.11140811439967566,
          -0.07132085742631468,
          0.05539140244930688,
          -0.12945866645414172,
          0.05885875312014328,
          -0.012839033271504444,
          0.0717820779081644,
          -0.08185252880638098,
          0.23415934371198147,
          -0.060477505738681984,
          -0.1304866791930218,
          0.09532203342683074,
          0.06693834731744121,
          0.11688801562569841,
          0.049031185848694474,
          0.05738121463904492,
          -0.1636975537480845,
          -0.046334755172222436,
          -0.0036781280455125426,
          0.07425624518148488,
          -0.025884124411480924,
          -0.00333406618731517,
          0.03900226996236259,
          0.018877679051485716,
          0.04811063324277669,
          -0.23193043965795535,
          -0.20581867847294574,
          0.11191312610739995,
          0.08293498606387043,
          -0.011078364534644038,
          -0.19530088134517432,
          0.03936321987366302,
          -0.045098787274564144,
          -0.05087018596830529,
          -0.01517412389765605,
          -0.10246142618347746,
          -0.06461271355964653,
          -0.20002970977440865,
          -0.0695065520199856,
          0.060760460404260995,
          -0.032720371285571606,
          -0.009896058325634643,
          0.03728450347271953,
          -0.07612468208691557,
          0.0608816630178085,
          -0.11499146453379924,
          0.07112418364822876,
          -0.05220034496661757,
          0.03684196045631203,
          -0.0021718590407597727,
          -0.06983237439782483,
          0.1297110035127587,
          -0.05044790341659036,
          -0.058945575303496006,
          0.08459206048952993,
          -0.10096632203305199,
          0.019221008759888625,
          -0.20430268592674566,
          0.1660725813403447,
          -0.044310255200869,
          -0.08304509039850018,
          0.036122603277744365,
          0.07804528192569948,
          0.09878338445413197,
          -0.08830900778212707,
          0.1360703439224371,
          -0.16359555499371517,
          -0.0007186706271835587,
          0.12528772758502935,
          0.17109170378237165,
          -0.11537684060100849,
          -0.1205453877255452,
          -0.12341811345516614,
          0.07078547406898478,
          0.048352148026526244,
          0.024643619356408096,
          0.1125026160695526,
          0.0026135946143329395,
          0.015619607714119533,
          -0.14302910463184612,
          0.08038451054225285,
          -0.09047894484841427,
          0.04551197395708435,
          -0.11314333256104941,
          -0.07114617626436368,
          0.13508315931402998,
          0.1186697886075157,
          0.11300349912692159,
          0.10397382105862614,
          -0.022543355246255926,
          -0.035967228404014104,
          0.1581003391621173,
          -0.0748582201370844,
          0.027819994823738373,
          -0.0796148399892255,
          0.17992194380978052,
          -0.029366360315822765,
          -0.07982380928116756,
          -0.029913176963372413,
          -0.0005426554413986115,
          -0.10814662308639576,
          0.018888130544561916,
          -0.018783501467722216,
          0.03741034460787974,
          -0.053572060487899656,
          0.08847381931406834,
          0.0687735986236533,
          -0.0978150394848512,
          -0.04009514233834603,
          -0.10797570467578592,
          -0.08480747131053264,
          -0.15769383048247343,
          -0.10094737337167607,
          -0.05580348035370012,
          0.028971115677971462,
          0.10834229296836004,
          0.01718815823005661,
          0.03490530542814374,
          0.0036752706062685996,
          -0.08316570922611864,
          0.04341263685241523,
          -0.09735210590576246,
          -0.0801006196243289,
          -0.11353661025753066,
          0.026072393976989176,
          -0.20037924265892793,
          -0.1756614506273141,
          0.0017002565780063882,
          -0.0788182786047873,
          -0.06162948451110476,
          0.05249461516879354,
          0.08292072590247587,
          0.014295481351482045,
          0.18181947525458225,
          -0.0450719647648194,
          0.04194767416980145,
          0.04059563454382291,
          -0.1921206200930627,
          0.22016420038865583,
          -0.06924066705049259,
          0.004231433828380841,
          0.07189270573816871,
          0.013145158059423762,
          -0.0723556335237666,
          0.017880587381031342,
          -0.034416966980210136,
          -0.026737897783829383,
          -0.08719390296241378,
          -0.01991545024754655,
          -0.1141638305871162,
          -0.028129765087436528,
          0.09705167702174035,
          0.035922985886904166,
          0.003987875521096599,
          -0.14062383269025008,
          -0.07036021289559,
          -0.041552254798917436,
          -0.03233594682751818,
          0.1018765598073908,
          -0.04485969921630651,
          0.026486864225509027,
          -0.0965346733252629,
          0.04485778550186578,
          0.06698734869523312,
          0.031202785136163164,
          -0.156643546433199,
          -0.03130118599439787,
          0.12232563857457197,
          0.14918233612195572,
          -0.09113999047870432,
          -0.027089221443475954,
          -0.01607112168881601,
          -0.04377756458615934,
          0.07438458483334429,
          0.047092164438319414,
          -0.047526320690391574,
          -0.1496961789035775,
          0.050830354736443435,
          0.008855493989010936,
          -0.050000244515514096,
          -0.13220074695319856,
          0.03993828667101265,
          0.10233371504204951,
          -0.07329761546558916,
          -0.008084079364893434,
          0.054303749465681776,
          0.06645256074764677,
          0.13758390660207243,
          0.0491089219619864,
          -0.01025340081507951,
          0.060591927831183584,
          0.1509292121731429,
          0.0459520511404486,
          -0.03061093744458799,
          -0.002435712164220275,
          0.12446196254292796,
          -0.009641216444826132,
          0.001068982144056391,
          -0.09510131991183855,
          0.0806961821343568,
          -0.0024535026903844694,
          0.007831432590811599,
          0.03151368813950634,
          -0.16444203531211135,
          -0.15086842648305238,
          0.09231113590461545,
          -0.11925184500249124,
          -0.16580166672329322,
          -0.06474677737146922,
          -0.0516973703725574,
          0.09430598580162482,
          0.042494421911185506,
          -0.02077864963600221,
          0.07770669423710974,
          -0.2222653196948462,
          -0.024305040702572587,
          -0.040739900969775665,
          0.040688382896707516,
          0.060570488900171075,
          0.02727117501246205,
          -0.07550092547949397,
          0.1912347304161172,
          -0.08303090321925961,
          0.03845848843604102,
          0.009450233590307753,
          -0.07109555300898458,
          -0.012242850996801193,
          0.17762742857763045,
          -0.13431579613365105,
          -0.04408497709792692,
          0.06870668745819146,
          -0.010389642047807512,
          -0.09379509984155536,
          -0.11071585600856793,
          -0.05788479348273627,
          -0.02889968834627386,
          -0.1266587523621352,
          0.09728280843736947,
          -0.014749283778540864,
          -0.06155957917755815,
          -0.11128870012006699,
          -0.08899539388469485,
          -0.149398659729413,
          0.041467472354941824,
          -0.14976858338058,
          -0.08321038929618679,
          -0.12095297487385098,
          -0.13117613610869322,
          -0.006501191247511904,
          0.08501660849188701,
          0.15884962987356946,
          0.11927861832917938,
          -0.1614059735369969,
          0.040707415044986386,
          -0.17839325270270076,
          0.17503799553578755,
          -0.09423614714254624,
          0.08681443239455074,
          0.07712961692479817,
          0.026102880367214455,
          -0.01614413588770838,
          0.08497446366261016,
          -0.05415798241578939,
          0.010811360570912257,
          -0.07497166249787623,
          0.07199576285305853,
          -0.0750423961014882,
          0.1384195013110326,
          0.13674825214158637,
          0.06824785125442016,
          0.08022646579020173,
          0.10008736762776532,
          -0.0701316483242911,
          0.031673039932370695,
          0.06581335445034156,
          0.08660892066281127,
          0.07867287300168169,
          0.11088112059383863,
          0.07781373038665546,
          -0.05621839432354599,
          -0.0656048178950625,
          -0.011106772334656135,
          -0.0018983420582465449,
          -0.06371933758879046,
          -0.021533624486742623,
          -0.07191883666387959,
          0.03225526706206062,
          0.16375422870398298,
          -0.044764444989528175,
          -0.015737861915649635,
          0.0821521438257507,
          0.044886221958733354,
          0.2947459002463244,
          -0.04254524246042808,
          -0.1411783922891697,
          0.06334709682842722,
          -0.11517170031512136,
          -0.10333683033022598,
          -0.04395678732630527,
          0.1441045224052564,
          0.07551434245090345,
